{"learner":{"attributes":{"scikit_learn":"{\"_estimator_type\": \"classifier\"}"},"feature_names":["Pregnancies","Glucose","BMI","DiabetesPedigreeFunction","Age"],"feature_types":["int","int","float","float","int"],"gradient_booster":{"model":{"gbtree_model_param":{"num_parallel_tree":"1","num_trees":"17"},"iteration_indptr":[0,1,2,3,4,5,6,7,8,9,10,11,12,13,14,15,16,17],"tree_info":[0,0,0,0,0,0,0,0,0,0,0,0,0,0,0,0,0],"trees":[{"base_weights":[-3.4643314E-8,-6.891988E-1,1.1318237E0,-1.1818798E0,-5.8779396E-2,-1.3537425E-1,1.6319518E0,-1.4697401E-1,-7.921802E-2,-1.3740967E-1,2.8147588E-2,-6.880758E-2,4.6521273E-2,1.13555275E-1,2.266631E-1],"categories":[],"categories_nodes":[],"categories_segments":[],"categories_sizes":[],"default_left":[0,0,0,0,0,0,0,0,0,0,0,0,0,0,0],"id":0,"left_children":[1,3,5,7,9,11,13,-1,-1,-1,-1,-1,-1,-1,-1],"loss_changes":[1.0814781E2,2.6694675E1,3.347534E1,4.2558365E0,1.7775412E1,5.555576E0,9.303474E0,0E0,0E0,0E0,0E0,0E0,0E0,0E0,0E0],"parents":[2147483647,0,0,1,1,2,2,3,3,4,4,5,5,6,6],"right_children":[2,4,6,8,10,12,14,-1,-1,-1,-1,-1,-1,-1,-1],"split_conditions":[1.28E2,2.9E1,3E1,3.1E1,2.63E1,1.46E2,1.59E2,-1.4697401E-1,-7.921802E-2,-1.3740967E-1,2.8147588E-2,-6.880758E-2,4.6521273E-2,1.13555275E-1,2.266631E-1],"split_indices":[1,4,2,2,2,1,1,0,0,0,0,0,0,0,0],"split_type":[0,0,0,0,0,0,0,0,0,0,0,0,0,0,0],"sum_hessian":[1.3664189E2,8.517037E1,5.1471523E1,4.731687E1,3.7853497E1,1.4772097E1,3.669943E1,2.5620356E1,2.1696516E1,7.1552343E0,3.0698263E1,7.6168623E0,7.1552343E0,2.2158146E1,1.4541283E1],"tree_param":{"num_deleted":"0","num_feature":"5","num_nodes":"15","size_leaf_vector":"1"}},{"base_weights":[-2.0282094E-3,-6.3825405E-1,9.9677426E-1,-1.1081787E0,-5.6400444E-2,-1.2420353E-1,1.4217122E0,-1.3910715E-1,-7.335191E-2,-1.2191476E-1,2.7503893E-2,-6.3911945E-2,4.19551E-2,9.758539E-2,1.9299091E-1],"categories":[],"categories_nodes":[],"categories_segments":[],"categories_sizes":[],"default_left":[0,0,0,0,0,0,0,0,0,0,0,0,0,0,0],"id":1,"left_children":[1,3,5,7,9,11,13,-1,-1,-1,-1,-1,-1,-1,-1],"loss_changes":[8.786542E1,2.3032253E1,2.5806187E1,3.926384E0,1.5284721E1,4.66657E0,6.9750443E0,0E0,0E0,0E0,0E0,0E0,0E0,0E0,0E0],"parents":[2147483647,0,0,1,1,2,2,3,3,4,4,5,5,6,6],"right_children":[2,4,6,8,10,12,14,-1,-1,-1,-1,-1,-1,-1,-1],"split_conditions":[1.28E2,2.9E1,3E1,3.1E1,2.7E1,1.46E2,1.58E2,-1.3910715E-1,-7.335191E-2,-1.2191476E-1,2.7503893E-2,-6.3911945E-2,4.19551E-2,9.758539E-2,1.9299091E-1],"split_indices":[1,4,2,2,2,1,1,0,0,0,0,0,0,0,0],"split_type":[0,0,0,0,0,0,0,0,0,0,0,0,0,0,0],"sum_hessian":[1.3626855E2,8.346395E1,5.2804607E1,4.5672623E1,3.779133E1,1.470935E1,3.8095257E1,2.4477554E1,2.119507E1,7.7887373E0,3.000259E1,7.464939E0,7.24441E0,2.1847733E1,1.6247526E1],"tree_param":{"num_deleted":"0","num_feature":"5","num_nodes":"15","size_leaf_vector":"1"}},{"base_weights":[-3.5690896E-3,-5.92631E-1,8.8834274E-1,-1.0431389E0,-5.394682E-2,-1.1415143E-1,1.2586015E0,-1.3252224E-1,-6.798047E-2,-9.546201E-2,3.596036E-2,-5.9402473E-2,3.7904225E-2,8.821512E-2,1.7312159E-1],"categories":[],"categories_nodes":[],"categories_segments":[],"categories_sizes":[],"default_left":[0,0,0,0,0,0,0,0,0,0,0,0,0,0,0],"id":2,"left_children":[1,3,5,7,9,11,13,-1,-1,-1,-1,-1,-1,-1,-1],"loss_changes":[7.2062004E1,1.9989159E1,2.0394226E1,3.703682E0,1.4747953E1,3.9247758E0,5.5760994E0,0E0,0E0,0E0,0E0,0E0,0E0,0E0,0E0],"parents":[2147483647,0,0,1,1,2,2,3,3,4,4,5,5,6,6],"right_children":[2,4,6,8,10,12,14,-1,-1,-1,-1,-1,-1,-1,-1],"split_conditions":[1.28E2,2.9E1,3E1,3.1E1,1E2,1.46E2,1.59E2,-1.3252224E-1,-6.798047E-2,-9.546201E-2,3.596036E-2,-5.9402473E-2,3.7904225E-2,8.821512E-2,1.7312159E-1],"split_indices":[1,4,2,2,1,1,1,0,0,0,0,0,0,0,0],"split_type":[0,0,0,0,0,0,0,0,0,0,0,0,0,0,0],"sum_hessian":[1.351567E2,8.1599785E1,5.3556908E1,4.3926815E1,3.767297E1,1.4631928E1,3.892498E1,2.3238014E1,2.06888E1,1.1442956E1,2.6230013E1,7.312491E0,7.3194375E0,2.326238E1,1.5662599E1],"tree_param":{"num_deleted":"0","num_feature":"5","num_nodes":"15","size_leaf_vector":"1"}},{"base_weights":[-4.5297258E-3,-5.5040485E-1,7.987236E-1,-9.847713E-1,-5.0703507E-2,-1.0505974E-1,1.127289E0,-1.2691195E-1,-6.303003E-2,-1.2432589E-1,2.3083037E-2,-8.0593735E-2,2.0680413E-2,7.40503E-2,1.5040429E-1],"categories":[],"categories_nodes":[],"categories_segments":[],"categories_sizes":[],"default_left":[0,0,0,0,0,0,0,0,0,0,0,0,0,0,0],"id":3,"left_children":[1,3,5,7,9,11,13,-1,-1,-1,-1,-1,-1,-1,-1],"loss_changes":[5.9461815E1,1.747402E1,1.6412773E1,3.5479965E0,1.3246222E1,3.564377E0,4.76289E0,0E0,0E0,0E0,0E0,0E0,0E0,0E0,0E0],"parents":[2147483647,0,0,1,1,2,2,3,3,4,4,5,5,6,6],"right_children":[2,4,6,8,10,12,14,-1,-1,-1,-1,-1,-1,-1,-1],"split_conditions":[1.28E2,2.9E1,3E1,3.1E1,2.63E1,2.7E1,1.55E2,-1.2691195E-1,-6.303003E-2,-1.2432589E-1,2.3083037E-2,-8.0593735E-2,2.0680413E-2,7.40503E-2,1.5040429E-1],"split_indices":[1,4,2,2,2,4,1,0,0,0,0,0,0,0,0],"split_type":[0,0,0,0,0,0,0,0,0,0,0,0,0,0,0],"sum_hessian":[1.3360757E2,7.97356E1,5.387197E1,4.213711E1,3.759849E1,1.4544564E1,3.9327408E1,2.1949461E1,2.0187653E1,6.528454E0,3.107004E1,3.9909992E0,1.0553565E1,2.0868603E1,1.8458805E1],"tree_param":{"num_deleted":"0","num_feature":"5","num_nodes":"15","size_leaf_vector":"1"}},{"base_weights":[-6.0550254E-3,-5.128118E-1,7.21111E-1,-9.31628E-1,-4.903648E-2,-9.905166E-2,1.0176352E0,-1.22055545E-1,-5.8444973E-2,-8.9079335E-2,3.2313466E-2,-5.372561E-2,3.3570554E-2,7.007729E-2,1.4287929E-1],"categories":[],"categories_nodes":[],"categories_segments":[],"categories_sizes":[],"default_left":[0,0,0,0,0,0,0,0,0,0,0,0,0,0,0],"id":4,"left_children":[1,3,5,7,9,11,13,-1,-1,-1,-1,-1,-1,-1,-1],"loss_changes":[4.9271885E1,1.5258289E1,1.3456457E1,3.4340782E0,1.2331476E1,3.1321342E0,4.265049E0,0E0,0E0,0E0,0E0,0E0,0E0,0E0,0E0],"parents":[2147483647,0,0,1,1,2,2,3,3,4,4,5,5,6,6],"right_children":[2,4,6,8,10,12,14,-1,-1,-1,-1,-1,-1,-1,-1],"split_conditions":[1.28E2,2.9E1,3E1,3.1E1,1E2,1.46E2,1.59E2,-1.22055545E-1,-5.8444973E-2,-8.9079335E-2,3.2313466E-2,-5.372561E-2,3.3570554E-2,7.007729E-2,1.4287929E-1],"split_indices":[1,4,2,2,1,1,1,0,0,0,0,0,0,0,0],"split_type":[0,0,0,0,0,0,0,0,0,0,0,0,0,0,0],"sum_hessian":[1.3170714E2,7.779037E1,5.3916767E1,4.034641E1,3.744396E1,1.4493858E1,3.942291E1,2.0647543E1,1.9698866E1,1.10525E1,2.6391459E1,7.1008964E0,7.392962E0,2.3791878E1,1.5631032E1],"tree_param":{"num_deleted":"0","num_feature":"5","num_nodes":"15","size_leaf_vector":"1"}},{"base_weights":[-6.6604656E-3,-4.77337E-1,6.5553504E-1,-8.826362E-1,-4.6226364E-2,1.8511093E-1,1.124259E0,-1.1778988E-1,-5.4182675E-2,-1.18958764E-1,2.0972827E-2,-6.406978E-2,4.5089412E-2,1.2650622E-1,5.4294397E-3],"categories":[],"categories_nodes":[],"categories_segments":[],"categories_sizes":[],"default_left":[0,0,0,0,0,0,0,0,0,0,0,0,0,0,0],"id":5,"left_children":[1,3,5,7,9,11,13,-1,-1,-1,-1,-1,-1,-1,-1],"loss_changes":[4.1013683E1,1.3397476E1,1.1847853E1,3.3452663E0,1.1464731E1,6.541064E0,4.0276527E0,0E0,0E0,0E0,0E0,0E0,0E0,0E0,0E0],"parents":[2147483647,0,0,1,1,2,2,3,3,4,4,5,5,6,6],"right_children":[2,4,6,8,10,12,14,-1,-1,-1,-1,-1,-1,-1,-1],"split_conditions":[1.28E2,2.9E1,3.4E1,3.1E1,2.63E1,2.5E1,1.076E0,-1.1778988E-1,-5.4182675E-2,-1.18958764E-1,2.0972827E-2,-6.406978E-2,4.5089412E-2,1.2650622E-1,5.4294397E-3],"split_indices":[1,4,2,2,2,4,3,0,0,0,0,0,0,0,0],"split_type":[0,0,0,0,0,0,0,0,0,0,0,0,0,0,0],"sum_hessian":[1.2958517E2,7.590935E1,5.3675827E1,3.858611E1,3.7323235E1,2.7485527E1,2.6190298E1,1.9358536E1,1.9227571E1,6.1597404E0,3.1163496E1,6.34878E0,2.1136747E1,2.2983427E1,3.2068713E0],"tree_param":{"num_deleted":"0","num_feature":"5","num_nodes":"15","size_leaf_vector":"1"}},{"base_weights":[-8.12613E-3,-4.9267855E-1,5.415171E-1,-9.527998E-1,-1.4364775E-1,2.6861316E-1,1.136559E0,-1.0074363E-1,2.3210714E-2,-1.0308709E-1,7.880312E-3,-5.2408766E-2,5.2406818E-2,2.8772002E-2,1.272942E-1],"categories":[],"categories_nodes":[],"categories_segments":[],"categories_sizes":[],"default_left":[0,0,0,0,0,0,0,0,0,0,0,0,0,0,0],"id":6,"left_children":[1,3,5,7,9,11,13,-1,-1,-1,-1,-1,-1,-1,-1],"loss_changes":[3.450259E1,1.0918898E1,9.552408E0,2.144785E0,8.039764E0,8.967297E0,1.8075581E0,0E0,0E0,0E0,0E0,0E0,0E0,0E0,0E0],"parents":[2147483647,0,0,1,1,2,2,3,3,4,4,5,5,6,6],"right_children":[2,4,6,8,10,12,14,-1,-1,-1,-1,-1,-1,-1,-1],"split_conditions":[1.24E2,1E2,1.62E2,1.154E0,2.65E1,2.5E1,2.86E1,-1.0074363E-1,2.3210714E-2,-1.0308709E-1,7.880312E-3,-5.2408766E-2,5.2406818E-2,2.8772002E-2,1.272942E-1],"split_indices":[1,1,1,3,2,4,2,0,0,0,0,0,0,0,0],"split_type":[0,0,0,0,0,0,0,0,0,0,0,0,0,0,0],"sum_hessian":[1.2754605E2,6.784189E1,5.970416E1,2.8517683E1,3.9324207E1,4.1926735E1,1.7777428E1,2.7403856E1,1.1138268E0,7.1546087E0,3.2169598E1,9.962032E0,3.19647E1,2.8913682E0,1.4886059E1],"tree_param":{"num_deleted":"0","num_feature":"5","num_nodes":"15","size_leaf_vector":"1"}},{"base_weights":[-8.103661E-3,-7.202649E-1,3.1393528E-1,-8.800783E-1,6.0591955E-2,-3.213424E-1,5.460639E-1,-9.200507E-2,1.4540781E-2,-3.3932235E-2,9.935009E-2,-9.144064E-2,-2.8630006E-3,3.1901497E-2,1.2064163E-1],"categories":[],"categories_nodes":[],"categories_segments":[],"categories_sizes":[],"default_left":[0,0,0,0,0,0,0,0,0,0,0,0,0,0,0],"id":7,"left_children":[1,3,5,7,9,11,13,-1,-1,-1,-1,-1,-1,-1,-1],"loss_changes":[2.9259466E1,5.010454E0,1.3133303E1,1.4880867E0,3.2040052E0,4.1652546E0,9.319548E0,0E0,0E0,0E0,0E0,0E0,0E0,0E0,0E0],"parents":[2147483647,0,0,1,1,2,2,3,3,4,4,5,5,6,6],"right_children":[2,4,6,8,10,12,14,-1,-1,-1,-1,-1,-1,-1,-1],"split_conditions":[1.07E2,6.55E-1,2.89E1,1.2E1,3.7E1,2.7E1,1.59E2,-9.200507E-2,1.4540781E-2,-3.3932235E-2,9.935009E-2,-9.144064E-2,-2.8630006E-3,3.1901497E-2,1.2064163E-1],"split_indices":[1,3,2,0,4,4,1,0,0,0,0,0,0,0,0],"split_type":[0,0,0,0,0,0,0,0,0,0,0,0,0,0,0],"sum_hessian":[1.2559321E2,3.872333E1,8.686987E1,3.2039024E1,6.684305E0,2.3144598E1,6.3725277E1,3.093599E1,1.1030362E0,5.1240363E0,1.560269E0,6.946467E0,1.619813E1,4.8524277E1,1.5201001E1],"tree_param":{"num_deleted":"0","num_feature":"5","num_nodes":"15","size_leaf_vector":"1"}},{"base_weights":[-7.4878642E-3,-8.6115646E-1,2.2768617E-1,-9.5699185E-1,-7.6729484E-2,2.589742E-2,8.970329E-1,-1.0250302E-1,2.3839418E-2,4.069151E-2,-4.9526446E-2,-9.6873574E-2,2.0413129E-2,1.0105015E-1,-6.233743E-2],"categories":[],"categories_nodes":[],"categories_segments":[],"categories_sizes":[],"default_left":[0,0,0,0,0,0,0,0,0,0,0,0,0,0,0],"id":8,"left_children":[1,3,5,7,9,11,13,-1,-1,-1,-1,-1,-1,-1,-1],"loss_changes":[2.520919E1,1.9652691E0,1.3277134E1,2.2027912E0,1.0192472E0,1.379355E1,4.55995E0,0E0,0E0,0E0,0E0,0E0,0E0,0E0,0E0],"parents":[2147483647,0,0,1,1,2,2,3,3,4,4,5,5,6,6],"right_children":[2,4,6,8,10,12,14,-1,-1,-1,-1,-1,-1,-1,-1],"split_conditions":[1E2,4.3E1,1.55E2,1.154E0,3.81E-1,2.64E1,6E1,-1.0250302E-1,2.3839418E-2,4.069151E-2,-4.9526446E-2,-9.6873574E-2,2.0413129E-2,1.0105015E-1,-6.233743E-2],"split_indices":[1,4,1,3,3,2,4,0,0,0,0,0,0,0,0],"split_type":[0,0,0,0,0,0,0,0,0,0,0,0,0,0,0],"sum_hessian":[1.23591705E2,2.6119087E1,9.747262E1,2.3079428E1,3.0396593E0,7.569227E1,2.1780346E1,2.1971384E1,1.1080434E0,1.4230244E0,1.6166348E0,1.0828528E1,6.486374E1,2.0579838E1,1.2005066E0],"tree_param":{"num_deleted":"0","num_feature":"5","num_nodes":"15","size_leaf_vector":"1"}},{"base_weights":[-8.454946E-3,-8.177026E-1,2.0594795E-1,-9.134333E-1,-7.1742676E-2,-1.8403716E-1,5.184204E-1,-9.824243E-2,2.2442432E-2,3.7908785E-2,-4.7103077E-2,-3.7122667E-2,1.00990914E-1,-2.1950534E-2,7.164302E-2],"categories":[],"categories_nodes":[],"categories_segments":[],"categories_sizes":[],"default_left":[0,0,0,0,0,0,0,0,0,0,0,0,0,0,0],"id":9,"left_children":[1,3,5,7,9,11,13,-1,-1,-1,-1,-1,-1,-1,-1],"loss_changes":[2.1448843E1,1.7833214E0,1.20084095E1,2.0150585E0,9.039877E-1,1.0258795E1,8.125826E0,0E0,0E0,0E0,0E0,0E0,0E0,0E0,0E0],"parents":[2147483647,0,0,1,1,2,2,3,3,4,4,5,5,6,6],"right_children":[2,4,6,8,10,12,14,-1,-1,-1,-1,-1,-1,-1,-1],"split_conditions":[1E2,4.3E1,3.1E1,1.154E0,3.81E-1,1.59E2,2.79E1,-9.824243E-2,2.2442432E-2,3.7908785E-2,-4.7103077E-2,-3.7122667E-2,1.00990914E-1,-2.1950534E-2,7.164302E-2],"split_indices":[1,4,4,3,3,1,2,0,0,0,0,0,0,0,0],"split_type":[0,0,0,0,0,0,0,0,0,0,0,0,0,0,0],"sum_hessian":[1.2165026E2,2.4890202E1,9.676006E1,2.1860312E1,3.0298903E0,4.3224373E1,5.353569E1,2.0739433E1,1.1208797E0,1.4468561E0,1.5830342E0,3.7961727E1,5.262646E0,1.130323E1,4.223246E1],"tree_param":{"num_deleted":"0","num_feature":"5","num_nodes":"15","size_leaf_vector":"1"}},{"base_weights":[-7.976877E-3,-3.5005254E-1,4.4396642E-1,-6.713448E-1,6.92982E-2,5.6897346E-2,8.441569E-1,-8.270465E-2,3.5116598E-3,-1.060526E-1,3.113907E-2,2.0557757E-2,-1.1776211E-1,9.8485485E-2,-1.5229592E-2],"categories":[],"categories_nodes":[],"categories_segments":[],"categories_sizes":[],"default_left":[0,0,0,0,0,0,0,0,0,0,0,0,0,0,0],"id":10,"left_children":[1,3,5,7,9,11,13,-1,-1,-1,-1,-1,-1,-1,-1],"loss_changes":[1.8813686E1,9.377278E0,8.074263E0,4.3524323E0,8.795344E0,5.331319E0,3.7542763E0,0E0,0E0,0E0,0E0,0E0,0E0,0E0,0E0],"parents":[2147483647,0,0,1,1,2,2,3,3,4,4,5,5,6,6],"right_children":[2,4,6,8,10,12,14,-1,-1,-1,-1,-1,-1,-1,-1],"split_conditions":[1.28E2,3.1E1,3.4E1,6.55E-1,2.7E1,6.1E1,1.076E0,-8.270465E-2,3.5116598E-3,-1.060526E-1,3.113907E-2,2.0557757E-2,-1.1776211E-1,9.8485485E-2,-1.5229592E-2],"split_indices":[1,4,2,3,2,4,3,0,0,0,0,0,0,0,0],"split_type":[0,0,0,0,0,0,0,0,0,0,0,0,0,0,0],"sum_hessian":[1.1968835E2,6.8253075E1,5.143527E1,3.830453E1,2.9948545E1,2.6726881E1,2.4708387E1,3.1247091E1,7.0574408E0,4.688247E0,2.5260298E1,2.459789E1,2.1289911E0,2.1661455E1,3.0469317E0],"tree_param":{"num_deleted":"0","num_feature":"5","num_nodes":"15","size_leaf_vector":"1"}},{"base_weights":[-9.210127E-3,-7.569063E-1,1.7819177E-1,-8.138377E-1,2.0611575E-2,4.7245335E-2,9.2741615E-1,-9.2250414E-2,-7.520687E-3,-7.852323E-2,1.8265711E-2,1.03830196E-1,2.429295E-3],"categories":[],"categories_nodes":[],"categories_segments":[],"categories_sizes":[],"default_left":[0,0,0,0,0,0,0,0,0,0,0,0,0],"id":11,"left_children":[1,3,5,7,-1,9,11,-1,-1,-1,-1,-1,-1],"loss_changes":[1.6769888E1,1.482646E0,9.348766E0,1.7643814E0,0E0,9.448777E0,1.3957615E0,0E0,0E0,0E0,0E0,0E0,0E0],"parents":[2147483647,0,0,1,1,2,2,3,3,5,5,6,6],"right_children":[2,4,6,8,-1,10,12,-1,-1,-1,-1,-1,-1],"split_conditions":[1E2,1.154E0,1.66E2,4.3E1,2.0611575E-2,2.64E1,5.8E1,-9.2250414E-2,-7.520687E-3,-7.852323E-2,1.8265711E-2,1.03830196E-1,2.429295E-3],"split_indices":[1,3,1,4,0,2,4,0,0,0,0,0,0],"split_type":[0,0,0,0,0,0,0,0,0,0,0,0,0],"sum_hessian":[1.1772003E2,2.2983099E1,9.473693E1,2.1846502E1,1.1365966E0,8.1547455E1,1.3189478E1,1.8827663E1,3.0188398E0,1.0737451E1,7.0810005E1,1.1613847E1,1.575631E0],"tree_param":{"num_deleted":"0","num_feature":"5","num_nodes":"13","size_leaf_vector":"1"}},{"base_weights":[-9.107038E-3,-5.602858E-1,2.1252309E-1,-7.223299E-1,1.2564217E-1,-1.4909622E-1,4.884715E-1,-1.02123156E-1,-4.8866477E-2,-2.4340825E-2,8.947415E-2,-3.269786E-2,8.702595E-2,6.0423918E-2,-8.770025E-2],"categories":[],"categories_nodes":[],"categories_segments":[],"categories_sizes":[],"default_left":[0,0,0,0,0,0,0,0,0,0,0,0,0,0,0],"id":12,"left_children":[1,3,5,7,9,11,13,-1,-1,-1,-1,-1,-1,-1,-1],"loss_changes":[1.4407244E1,3.8497324E0,8.469619E0,1.4219408E0,2.2938998E0,7.02728E0,8.111376E0,0E0,0E0,0E0,0E0,0E0,0E0,0E0,0E0],"parents":[2147483647,0,0,1,1,2,2,3,3,4,4,5,5,6,6],"right_children":[2,4,6,8,10,12,14,-1,-1,-1,-1,-1,-1,-1,-1],"split_conditions":[1.07E2,6.55E-1,3.1E1,2.97E1,3.7E1,1.59E2,6.1E1,-1.02123156E-1,-4.8866477E-2,-2.4340825E-2,8.947415E-2,-3.269786E-2,8.702595E-2,6.0423918E-2,-8.770025E-2],"split_indices":[1,3,4,2,4,1,4,0,0,0,0,0,0,0,0],"split_type":[0,0,0,0,0,0,0,0,0,0,0,0,0,0,0],"sum_hessian":[1.15964836E2,3.281878E1,8.314606E1,2.6504313E1,6.3144674E0,3.6185764E1,4.6960293E1,1.0150028E1,1.6354284E1,4.7288537E0,1.5856137E0,3.1387691E1,4.7980704E0,4.3803986E1,3.1563044E0],"tree_param":{"num_deleted":"0","num_feature":"5","num_nodes":"15","size_leaf_vector":"1"}},{"base_weights":[-9.203358E-3,-6.8821067E-1,1.4991651E-1,-7.467592E-1,2.2870809E-2,-2.269427E-1,3.5972252E-1,-8.118966E-2,2.0829068E-2,-3.754982E-2,7.455147E-2,-1.8637612E-2,5.7546783E-2],"categories":[],"categories_nodes":[],"categories_segments":[],"categories_sizes":[],"default_left":[0,0,0,0,0,0,0,0,0,0,0,0,0],"id":13,"left_children":[1,3,5,7,-1,9,11,-1,-1,-1,-1,-1,-1],"loss_changes":[1.255426E1,1.3549356E0,7.528491E0,1.4735308E0,0E0,5.234413E0,7.2809834E0,0E0,0E0,0E0,0E0,0E0,0E0],"parents":[2147483647,0,0,1,1,2,2,3,3,5,5,6,6],"right_children":[2,4,6,8,-1,10,12,-1,-1,-1,-1,-1,-1],"split_conditions":[1E2,1E1,2.9E1,1.154E0,2.2870809E-2,1.59E2,2.56E-1,-8.118966E-2,2.0829068E-2,-3.754982E-2,7.455147E-2,-1.8637612E-2,5.7546783E-2],"split_indices":[1,0,4,3,0,1,3,0,0,0,0,0,0],"split_type":[0,0,0,0,0,0,0,0,0,0,0,0,0],"sum_hessian":[1.14241356E2,2.1057638E1,9.3183716E1,1.9968178E1,1.0894612E0,3.3295593E1,5.9888123E1,1.8833559E1,1.1346188E0,2.9415813E1,3.8797803E0,1.6998167E1,4.2889957E1],"tree_param":{"num_deleted":"0","num_feature":"5","num_nodes":"13","size_leaf_vector":"1"}},{"base_weights":[-8.423292E-3,-2.796267E-1,3.364952E-1,-9.962313E-2,-1.1194933E-1,-1.9190804E-3,7.0147157E-1,-5.116532E-2,1.8526139E-2,1.2813799E-2,-1.0770341E-1,8.436801E-2,-2.4904415E-2],"categories":[],"categories_nodes":[],"categories_segments":[],"categories_sizes":[],"default_left":[0,0,0,0,0,0,0,0,0,0,0,0,0],"id":14,"left_children":[1,3,5,-1,7,9,11,-1,-1,-1,-1,-1,-1],"loss_changes":[1.0722297E1,7.596889E0,6.2345815E0,0E0,6.4045625E0,3.9389381E0,3.4924707E0,0E0,0E0,0E0,0E0,0E0,0E0],"parents":[2147483647,0,0,1,1,2,2,4,4,5,5,6,6],"right_children":[2,4,6,-1,8,10,12,-1,-1,-1,-1,-1,-1],"split_conditions":[1.28E2,2.65E1,3.4E1,-9.962313E-2,2.9E1,6.1E1,1.076E0,-5.116532E-2,1.8526139E-2,1.2813799E-2,-1.0770341E-1,8.436801E-2,-2.4904415E-2],"split_indices":[1,2,2,0,4,4,3,0,0,0,0,0,0],"split_type":[0,0,0,0,0,0,0,0,0,0,0,0,0],"sum_hessian":[1.1261829E2,6.3152153E1,4.9466137E1,1.1037919E1,5.2114235E1,2.6183216E1,2.3282923E1,2.1917273E1,3.0196962E1,2.4143394E1,2.039821E0,2.0350624E1,2.9322987E0],"tree_param":{"num_deleted":"0","num_feature":"5","num_nodes":"13","size_leaf_vector":"1"}},{"base_weights":[-9.556749E-3,-1.4683436E-1,6.2863415E-1,-9.27623E-1,-1.2454661E-3,7.216562E-1,-5.0397273E-2,-9.669643E-2,-2.6389195E-2,-3.5013568E-2,2.3180231E-2,4.9306266E-2,1.033764E-1],"categories":[],"categories_nodes":[],"categories_segments":[],"categories_sizes":[],"default_left":[0,0,0,0,0,0,0,0,0,0,0,0,0],"id":15,"left_children":[1,3,5,7,9,11,-1,-1,-1,-1,-1,-1,-1],"loss_changes":[9.887241E0,1.0550217E1,2.4688635E0,1.2570667E-1,6.5235944E0,8.370056E-1,0E0,0E0,0E0,0E0,0E0,0E0,0E0],"parents":[2147483647,0,0,1,1,2,2,3,3,4,4,5,5],"right_children":[2,4,6,8,10,12,-1,-1,-1,-1,-1,-1,-1],"split_conditions":[1.55E2,2.64E1,6E1,5.8E1,2.9E1,7E0,-5.0397273E-2,-9.669643E-2,-2.6389195E-2,-3.5013568E-2,2.3180231E-2,4.9306266E-2,1.033764E-1],"split_indices":[1,2,4,4,4,0,0,0,0,0,0,0,0],"split_type":[0,0,0,0,0,0,0,0,0,0,0,0,0],"sum_hessian":[1.1080243E2,9.182121E1,1.8981216E1,1.3586378E1,7.823484E1,1.787589E1,1.1053268E0,1.2394837E1,1.191541E0,3.112938E1,4.7105457E1,1.1807581E1,6.068309E0],"tree_param":{"num_deleted":"0","num_feature":"5","num_nodes":"13","size_leaf_vector":"1"}},{"base_weights":[-9.315174E-3,-6.2081355E-1,1.2567993E-1,-6.8381447E-1,2.5033057E-2,-1.6201822E-1,3.3864808E-1,-8.0134474E-2,-2.3753408E-3,-2.9212236E-2,6.4476885E-2,4.5675575E-3,5.6412995E-2],"categories":[],"categories_nodes":[],"categories_segments":[],"categories_sizes":[],"default_left":[0,0,0,0,0,0,0,0,0,0,0,0,0],"id":16,"left_children":[1,3,5,7,-1,9,11,-1,-1,-1,-1,-1,-1],"loss_changes":[9.172192E0,1.2738175E0,5.6351285E0,1.455224E0,0E0,4.3258348E0,3.4528537E0,0E0,0E0,0E0,0E0,0E0,0E0],"parents":[2147483647,0,0,1,1,2,2,3,3,5,5,6,6],"right_children":[2,4,6,8,-1,10,12,-1,-1,-1,-1,-1,-1],"split_conditions":[1E2,1.154E0,3.28E-1,4.3E1,2.5033057E-2,1.62E2,3.29E1,-8.0134474E-2,-2.3753408E-3,-2.9212236E-2,6.4476885E-2,4.5675575E-3,5.6412995E-2],"split_indices":[1,3,3,4,0,1,2,0,0,0,0,0,0],"split_type":[0,0,0,0,0,0,0,0,0,0,0,0,0],"sum_hessian":[1.0916653E2,1.909076E1,9.007577E1,1.800377E1,1.0869894E0,3.8417244E1,5.1658524E1,1.5100869E1,2.9029016E0,3.3631653E1,4.7855906E0,2.2989904E1,2.8668617E1],"tree_param":{"num_deleted":"0","num_feature":"5","num_nodes":"13","size_leaf_vector":"1"}}]},"name":"gbtree"},"learner_model_param":{"base_score":"3.614865E-1","boost_from_average":"1","num_class":"0","num_feature":"5","num_target":"1"},"objective":{"name":"binary:logistic","reg_loss_param":{"scale_pos_weight":"1"}}},"version":[3,0,0]}